rho 3.4331615
total_sv 101
support Vectors
431.4911680770859   0.43973941368078184  0.3888888888888889  0.7999999999999999  0.7483870967741935  0.10526315789473675  0.18548387096774194  0.30630630630630623
-431.4911680770859   0.2866449511400651  0.11111111111111113  0.8206896551724137  0.3806451612903226  0.3198380566801619  0.22580645161290325  0.23423423423423426
431.4911680770859   0.5146579804560261  0.07936507936507936  0.8620689655172413  0.7354838709677419  0.05263157894736845  0.6048387096774195  0.0
431.4911680770859   0.4364820846905538  0.11904761904761904  0.8862068965517241  0.658064516129032  0.2834008097165992  0.23387096774193547  0.03603603603603598
-431.4911680770859   0.5081433224755701  0.22222222222222218  0.031034482758620686  0.35483870967741926  0.534412955465587  0.5120967741935485  1.0
-431.4911680770859   0.7947882736156352  0.6031746031746031  0.0689655172413793  0.27741935483870966  0.23076923076923075  0.6895161290322582  0.3333333333333333
431.4911680770859   0.06188925081433221  0.07936507936507936  0.6586206896551723  0.3935483870967742  0.6153846153846154  0.08064516129032259  0.5405405405405403
-431.4911680770859   0.762214983713355  0.6428571428571429  0.09655172413793105  0.6193548387096773  0.05668016194331978  0.6612903225806451  0.6036036036036035
-431.4911680770859   0.29641693811074915  0.11904761904761904  0.7551724137931034  0.5548387096774193  0.42914979757085014  0.24596774193548387  0.2792792792792793
-431.4911680770859   0.2768729641693811  0.1507936507936508  0.8206896551724137  0.3032258064516128  0.34008097165991896  0.1814516129032259  0.2882882882882883
-431.4911680770859   0.5635179153094463  0.37301587301587297  0.03448275862068964  0.24516129032258063  0.417004048582996  0.5806451612903226  0.8108108108108107
431.4911680770859   0.45602605863192186  0.14285714285714282  0.6206896551724138  0.4967741935483869  0.417004048582996  0.20967741935483877  0.32432432432432434
431.4911680770859   0.5602605863192182  0.3015873015873015  0.796551724137931  0.7548387096774192  0.14574898785425092  0.310483870967742  0.10810810810810811
-431.4911680770859   0.32573289902280134  0.07936507936507936  0.8999999999999999  0.6064516129032258  0.2550607287449393  0.24193548387096783  0.07207207207207204
-431.4911680770859   0.2605863192182411  0.09523809523809525  0.8137931034482758  0.5999999999999999  0.37651821862348184  0.20967741935483877  0.23423423423423426
-431.4911680770859   0.8631921824104236  0.23015873015873017  0.03448275862068964  0.2645161290322581  0.3603238866396762  0.8104838709677421  0.35135135135135126
431.4911680770859   0.20846905537459282  0.49999999999999994  0.5551724137931033  0.5354838709677419  0.417004048582996  0.1370967741935484  0.5315315315315314
431.4911680770859   0.34853420195439744  0.10317460317460318  0.7241379310344828  0.625806451612903  0.4048582995951416  0.1693548387096775  0.25225225225225223
431.4911680770859   0.17589576547231267  0.09523809523809525  0.7275862068965516  0.49032258064516127  0.5141700404858299  0.1330645161290323  0.4234234234234234
431.4911680770859   0.40390879478827363  0.0634920634920635  0.8344827586206897  0.9290322580645161  0.29554655870445345  0.19354838709677416  0.22522522522522512
431.4911680770859   0.4071661237785017  0.0873015873015873  0.796551724137931  0.6838709677419355  0.3198380566801619  0.25000000000000006  0.09009009009009
431.4911680770859   0.527687296416938  0.09523809523809525  0.5965517241379309  0.5999999999999999  0.36842105263157887  0.3508064516129033  0.23423423423423426
431.4911680770859   0.28338762214983715  0.30952380952380953  0.6862068965517241  0.8322580645161289  0.38461538461538447  0.0846774193548387  0.24324324324324323
431.4911680770859   0.30944625407166126  0.0873015873015873  0.7448275862068965  0.6451612903225805  0.44534412955465574  0.1693548387096775  0.10810810810810811
431.4911680770859   0.35179153094462534  0.1349206349206349  0.7068965517241379  0.7741935483870966  0.42510121457489863  0.24193548387096783  0.11711711711711709
-431.4911680770859   0.3583061889250815  0.16666666666666669  0.7103448275862069  0.4967741935483869  0.33198380566801616  0.36290322580645173  0.10810810810810811
-431.4911680770859   0.5602605863192182  0.46825396825396814  0.017241379310344813  0.12258064516129043  0.42914979757085014  0.6048387096774195  0.7567567567567568
-431.4911680770859   0.7785016286644951  0.5476190476190476  0.07241379310344828  0.625806451612903  0.1336032388663968  0.7620967741935484  0.5675675675675674
-431.4911680770859   0.8599348534201955  0.30952380952380953  0.031034482758620686  0.3419354838709677  0.47368421052631576  0.8104838709677421  0.1801801801801801
-431.4911680770859   0.5635179153094463  0.5396825396825397  0.027586206896551734  0.07096774193548394  0.3967611336032389  0.5927419354838711  0.8018018018018019
-431.4911680770859   0.11074918566775241  0.09523809523809525  0.43793103448275866  0.29677419354838713  1.0  0.08064516129032259  0.36036036036036023
-431.4911680770859   0.5407166123778503  0.49999999999999994  0.03448275862068964  0.14838709677419357  0.37651821862348184  0.5846774193548389  0.8288288288288287
431.4911680770859   0.3778501628664495  0.07936507936507936  0.7931034482758621  0.7935483870967741  0.3076923076923076  0.2056451612903226  0.24324324324324323
-431.4911680770859   0.33224755700325737  0.6825396825396826  0.6379310344827587  0.44516129032258067  0.1983805668016194  0.20967741935483877  0.12612612612612606
431.4911680770859   0.2899022801302932  0.07936507936507936  0.7999999999999999  0.8258064516129031  0.34008097165991896  0.15725806451612906  0.32432432432432434
431.4911680770859   0.12052117263843648  0.015873015873015886  0.7517241379310344  0.8774193548387096  0.5910931174089068  0.02822580645161295  0.1801801801801801
431.4911680770859   0.24755700325732896  0.12698412698412698  0.6793103448275862  0.7999999999999999  0.6032388663967613  0.07661290322580648  0.1891891891891892
431.4911680770859   0.5211726384364822  0.09523809523809525  0.8034482758620689  0.5999999999999999  0.036437246963562694  0.7177419354838709  0.08108108108108102
431.4911680770859   0.029315960912052075  0.11111111111111113  0.7241379310344828  0.5548387096774193  0.5708502024291497  0.040322580645161296  0.4864864864864864
431.4911680770859   0.10097719869706835  0.0634920634920635  0.7413793103448276  1.0  0.4696356275303643  0.0  0.4684684684684684
431.4911680770859   0.42996742671009763  0.09523809523809525  0.8448275862068966  0.7419354838709675  0.25101214574898784  0.24596774193548387  0.10810810810810811
-431.4911680770859   0.2736156351791531  0.1984126984126984  0.693103448275862  0.40645161290322573  0.3724696356275303  0.22580645161290325  0.3333333333333333
431.4911680770859   0.17589576547231267  0.0873015873015873  0.7103448275862069  0.5419354838709678  0.49797570850202433  0.16532258064516128  0.4504504504504503
431.4911680770859   0.3583061889250815  0.4126984126984127  0.8103448275862069  0.4645161290322579  0.1781376518218623  0.27419354838709675  0.10810810810810811
-431.4911680770859   0.8143322475570034  0.3492063492063492  0.03448275862068964  0.051612903225806486  0.32388663967611336  0.8346774193548386  0.3333333333333333
-431.4911680770859   0.3061889250814332  0.12698412698412698  0.8206896551724137  0.45806451612903226  0.25910931174089064  0.22580645161290325  0.1981981981981982
431.4911680770859   0.1954397394136808  0.03968253968253968  0.7  0.8129032258064515  0.6072874493927124  0.06854838709677424  0.2882882882882883
-431.4911680770859   0.33550488599348527  0.1746031746031746  0.7482758620689655  0.39999999999999986  0.26720647773279343  0.27822580645161293  0.12612612612612606
431.4911680770859   0.02280130293159607  0.03968253968253968  0.6586206896551723  0.36774193548387085  0.6072874493927124  0.03629032258064518  0.5405405405405403
-431.4911680770859   0.41368078175895756  0.15873015873015872  0.8448275862068966  0.5354838709677419  0.24696356275303635  0.31854838709677424  0.14414414414414417
-431.4911680770859   0.6058631921824106  1.0  0.09310344827586206  0.3419354838709677  0.18218623481781376  0.6370967741935484  0.4954954954954954
431.4911680770859   0.03908794788273614  0.0873015873015873  0.7  0.3935483870967742  0.6275303643724696  0.04435483870967741  0.5675675675675674
-431.4911680770859   0.2182410423452769  0.12698412698412698  0.796551724137931  0.5161290322580644  0.3643724696356274  0.20161290322580655  0.22522522522522512
-431.4911680770859   0.3843648208469055  0.12698412698412698  0.7068965517241379  0.4387096774193548  0.39271255060728744  0.2822580645161291  0.09009009009009
431.4911680770859   0.3159609120521173  0.10317460317460318  0.7034482758620689  0.8451612903225806  0.4777327935222673  0.23790322580645165  0.1801801801801801
431.4911680770859   0.16286644951140067  0.11904761904761904  0.6689655172413793  0.5032258064516129  0.54251012145749  0.1370967741935484  0.43243243243243235
431.4911680770859   0.33876221498371334  0.09523809523809525  0.789655172413793  0.7032258064516129  0.32388663967611336  0.14112903225806453  0.4234234234234234
-431.4911680770859   0.5048859934853421  0.6031746031746031  0.020689655172413796  0.0  0.40890688259109303  0.5362903225806451  0.8828828828828829
-431.4911680770859   0.8925081433224756  0.21428571428571427  0.04482758620689656  0.30967741935483867  0.2550607287449393  0.9072580645161291  0.5855855855855854
431.4911680770859   0.4332247557003257  0.10317460317460318  0.8275862068965517  0.5419354838709678  0.10526315789473675  0.47580645161290325  0.14414414414414417
431.4911680770859   0.498371335504886  0.15873015873015872  0.6206896551724138  0.7483870967741935  0.39271255060728744  0.26612903225806456  0.1801801801801801
-431.4911680770859   0.7491856677524431  0.30952380952380953  0.010344827586206891  0.1290322580645161  0.5384615384615385  0.7419354838709677  0.3333333333333333
-431.4911680770859   1.0  0.27777777777777773  0.031034482758620686  0.10322580645161297  0.25910931174089064  1.0  0.2792792792792793
431.4911680770859   0.5993485342019544  0.3015873015873015  0.6793103448275862  0.7096774193548385  0.23076923076923075  0.3790322580645162  0.09009009009009
-431.4911680770859   0.8338762214983715  0.5793650793650793  0.024137931034482748  0.167741935483871  0.24696356275303635  0.7903225806451615  0.4504504504504503
431.4911680770859   0.12052117263843648  0.02380952380952383  0.6551724137931034  0.8129032258064515  0.5991902834008097  0.0  0.29729729729729726
-431.4911680770859   0.6058631921824106  0.3412698412698412  0.020689655172413796  0.24516129032258063  0.38461538461538447  0.6774193548387096  0.9009009009009008
431.4911680770859   0.21498371335504882  0.25396825396825395  0.786206896551724  0.4387096774193548  0.291497975708502  0.2217741935483872  0.4504504504504503
-431.4911680770859   0.5993485342019544  0.48412698412698413  0.017241379310344813  0.019354838709677462  0.3805668016194333  0.6451612903225807  0.7567567567567568
431.4911680770859   0.3908794788273616  0.11111111111111113  0.6793103448275862  0.7032258064516129  0.4615384615384616  0.2540322580645161  0.1801801801801801
-431.4911680770859   0.7003257328990229  0.73015873015873  0.05172413793103447  0.167741935483871  0.21052631578947367  0.7177419354838709  0.4954954954954954
431.4911680770859   0.43973941368078184  0.26190476190476186  0.7827586206896552  0.6774193548387095  0.23076923076923075  0.22580645161290325  0.24324324324324323
-431.4911680770859   0.3648208469055375  0.1746031746031746  0.996551724137931  0.6193548387096773  0.09716599190283395  0.217741935483871  0.05405405405405409
-431.4911680770859   0.3583061889250815  0.07142857142857145  0.789655172413793  0.5290322580645159  0.28744939271255054  0.23790322580645165  0.16216216216216212
-431.4911680770859   0.5602605863192182  0.3809523809523809  0.020689655172413796  0.19354838709677416  0.47368421052631576  0.560483870967742  0.7027027027027026
-431.4911680770859   0.3159609120521173  0.07142857142857145  0.8793103448275862  0.632258064516129  0.2995951417004048  0.18951612903225812  0.07207207207207204
431.4911680770859   0.3973941368078175  0.4761904761904762  0.6517241379310345  0.5290322580645159  0.19028340080971656  0.2620967741935485  0.4144144144144144
-431.4911680770859   0.7263843648208469  0.3333333333333333  0.05172413793103447  0.664516129032258  0.2753036437246964  0.7822580645161291  0.6576576576576576
431.4911680770859   0.45276872964169385  0.12698412698412698  0.7655172413793103  0.7419354838709675  0.34008097165991896  0.23387096774193547  0.16216216216216212
431.4911680770859   0.11074918566775241  0.0  0.8206896551724137  0.8193548387096772  0.48987854251012136  0.0846774193548387  0.06306306306306307
431.4911680770859   0.06188925081433221  0.1746031746031746  0.6275862068965516  0.3935483870967742  0.5748987854251012  0.060483870967741944  0.6126126126126126
431.4911680770859   0.5374592833876223  0.36507936507936506  0.6310344827586206  0.28387096774193554  0.06072874493927126  0.6088709677419355  0.29729729729729726
-431.4911680770859   0.30944625407166126  0.1507936507936508  0.8034482758620689  0.5677419354838709  0.29554655870445345  0.25000000000000006  0.1801801801801801
-431.4911680770859   1.0  0.15873015873015872  0.07241379310344828  0.3870967741935483  0.2550607287449393  0.9959677419354838  0.10810810810810811
431.4911680770859   0.7100977198697068  0.22222222222222218  0.5758620689655172  0.8322580645161289  0.2064777327935222  0.3951612903225806  0.09009009009009
-431.4911680770859   0.45602605863192186  0.3571428571428571  0.7586206896551724  0.6129032258064515  0.19028340080971656  0.3225806451612904  0.08108108108108102
-431.4911680770859   0.9022801302931596  0.2698412698412698  0.027586206896551734  0.19354838709677416  0.23886639676113355  0.9354838709677419  0.5405405405405403
431.4911680770859   0.5570032573289904  0.22222222222222218  0.7137931034482758  0.4838709677419354  0.0  0.5927419354838711  0.25225225225225223
431.4911680770859   0.4495114006514658  0.10317460317460318  0.7482758620689655  0.7225806451612901  0.31578947368421056  0.25000000000000006  0.23423423423423426
431.4911680770859   0.20846905537459282  0.14285714285714282  0.6586206896551723  0.4387096774193548  0.54251012145749  0.17741935483870971  0.4954954954954954
431.4911680770859   0.3550488599348534  0.03968253968253968  0.8689655172413793  0.8064516129032256  0.23076923076923075  0.1733870967741936  0.1981981981981982
-431.4911680770859   0.5179153094462541  0.46031746031746024  0.027586206896551734  0.1741935483870967  0.4129554655870445  0.5322580645161291  0.9189189189189187
-431.4911680770859   0.5309446254071661  0.3492063492063492  0.0  0.29677419354838713  0.5263157894736841  0.5241935483870969  0.7927927927927928
431.4911680770859   0.47231270358306193  0.6825396825396826  0.6689655172413793  0.29677419354838713  0.06072874493927126  0.31854838709677424  0.20720720720720717
431.4911680770859   0.6449511400651465  0.27777777777777773  0.7103448275862069  0.7225806451612901  0.10121457489878542  0.27822580645161293  0.12612612612612606
431.4911680770859   0.45602605863192186  0.07142857142857145  0.7344827586206896  0.7870967741935482  0.34008097165991896  0.2580645161290323  0.29729729729729726
-431.4911680770859   0.7231270358306189  0.8571428571428571  0.0896551724137931  0.37419354838709673  0.0445344129554655  0.7419354838709677  0.4684684684684684
431.4911680770859   0.0  0.1507936507936508  0.5586206896551724  0.3354838709677418  0.6882591093117407  0.016129032258064533  0.5945945945945945
431.4911680770859   0.2996742671009772  0.16666666666666669  1.0  0.5741935483870968  0.14574898785425092  0.16532258064516128  0.22522522522522512
-431.4911680770859   0.23452768729641696  0.1507936507936508  0.7758620689655172  0.32903225806451614  0.39271255060728744  0.18548387096774194  0.3333333333333333
-431.4911680770859   0.8013029315960913  0.24603174603174605  0.06551724137931034  0.27741935483870966  0.32388663967611336  0.8145161290322582  0.4954954954954954
